83.901476978000005147 0 0 -0.012262500000005577966 0.00028603557228165248138 0.0017208139500397199272 0.0014765097439002517095 0.99999738844757835032
84.401476986000005809 0.00070579183978121125091 -0.00039138752190115172914 0.010419789107832850769 0.0083017279504056396694 0.0046494469075496281177 0.013319072874795664235 0.99986602415235970032
84.851476992000002042 0.0011839691157371928266 -0.00079623766219859162894 0.0098282989561467772738 0.013392651739858202689 0.005853600962509450216 0.028283501689242467741 0.99949307939942289014
85.20147699800000396 0.001137146456695418582 -0.00075141006469387709027 0.009852293556231206742 0.017103018666312547885 0.011366234371980549894 0.037420205323014113508 0.99908859652299319976
85.601477004000003035 0.0017463205149962576519 -0.0010909346282519628239 0.009947714285873012624 0.015396311447194964417 0.011707760845775882705 0.048643047297104974325 0.99862892802053893071
85.951477009000001317 0.0011724801094272748001 -0.00084781284091473398459 0.0098683032351822106559 0.010543368528706468373 0.0094960865027388201287 0.057057018955664319526 0.9982700828478701105
86.251477012999998806 0.0011016927251585066291 -0.00084481291787825280298 0.0097686109659828081198 0.011327815167466554272 0.011392821473027796644 0.066505279411236295495 0.99765672053710374723
86.55147701799999993 0.0016082282425484417925 -0.0011147908388956003899 0.010115812068852123723 0.015674012150240394098 0.0092002021267550814637 0.077769766850531066305 0.99680567062389591193
86.901477022999998212 0.0014477721420083136932 -0.00058104241844057725672 0.0096772772414791645434 0.012749341181248523974 0.010714777435684729595 0.086173434126220527229 0.99614094740395142669
87.151477026999998543 0.0017596550200924465299 -0.00088752374865061717333 0.0096576780548685778327 0.013579627775352102331 0.0037643582111283524147 0.090632253498980422379 0.99578472469828427371
87.451477030999996032 0.0015328381554406212209 -0.00084351068933985332617 0.0095531316323816672931 0.014940717859223084235 0.00086347552066882039129 0.10168710319997922853 0.99470385663406024612
87.751477035999997156 0.0016725755669810551344 -0.00062095473906502158916 0.009204824680788384339 0.015015844844046857126 0.0042297651511289348011 0.1053556872665193378 0.99431223096720733334
88.101477040999995438 0.0014677963201123610422 -0.0003531948131082163168 0.0092108468216325380118 0.012610166922897573377 0.0048901198652492837426 0.1150141707922271439 0.99327177093424767751
88.401477044999992927 0.0014471115685227246145 -0.00048023828389043206897 0.0087595197245780923034 0.0077074361497927231651 0.0056158292513739530363 0.12396999526411142667 0.99224014137910809819
88.701477049999994051 0.0013730776734651301257 -0.0004839883224795724255 0.0085949948457187241163 0.009474392917213896731 0.0056515544364609156258 0.13116514500552911571 0.9912991478595049033
89.051477055000006544 0.0011179258463539871928 -0.00045413621804114379186 0.0082685536268834684132 0.0067752018700109857899 0.0080205449846800849767 0.13761201057370733847 0.99043056396883832893
89.351477059999993457 0.0011957097642492711675 -0.00070723177476547888307 0.0083233974386175829663 0.0098759533154503531538 0.0046764174115285252198 0.15085175210845472304 0.98849600178863317179
89.70147706500000595 0.00096985799458136558344 -0.0004749693003291831795 0.0084787774072197421432 0.0066641171717071387426 0.003651545672509165074 0.16526460215517072005 0.98621998916621866904
90.101477071000005026 0.0011605666316011355697 -0.00057475872590901852521 0.0083685534661558022562 0.0055383861016892075788 0.0050383019053060716652 0.1737737345609568218 0.98475714314242857039
90.401477075000002515 0.0013219423586054352728 -0.00042898058701736898821 0.0083502664929388497467 0.0065043629786713137719 0.0023617235522574138787 0.18249063623969410952 0.98318323989424072362
90.701477080000003639 0.00094612048081272985545 -0.00043164512453487799328 0.0082147259159327419564 0.0095186315362798968459 0.0048524669230539593801 0.18921326124712989358 0.98187789005897396777
91.051477085000001921 0.0018923976458980545316 -0.00134693512285285707 0.008211557567878918773 0.010859257920402464945 0.00294861637601481286 0.19516975925869675668 0.98070492363900552135
91.301477089000002252 0.0013526096167668839355 -0.00048073523606979450158 0.0080462932430844461701 0.0065352637954139321252 0.0022353822841869380386 0.20179673087786134666 0.97940306962974943428
91.601477092999999741 0.001588388121094742346 -0.00039080462047973233948 0.0076301141170613869663 0.0053779509616189956345 0.0031336119468615814508 0.20941245200179661734 0.97780759000235628609
92.001477098999998816 0.0015805387114990127398 -0.00028440162455237248239 0.0073451400066487657417 0.0036230898908956488298 0.0026287674519105018109 0.2190111329030295928 0.97571209199530672951
92.451477105999998685 0.0013574764155121332027 -0.00031771689426642578131 0.0071686396140754529011 0.00669414578062643012 0.001982993252265687241 0.22573779440649474615 0.97416307891775510974
92.801477110999996967 0.00084598858650657582803 -0.00013282386383593064189 0.0067562115795070246463 0.0065677871277905726724 0.0017569185108640174298 0.23567156656502835643 0.97180897820630141037
93.251477117999996835 0.0007108416822147427391 -0.0001064657396419378167 0.0066925444606472433637 0.0075040790518469532508 0.0014510589783794936025 0.24818500479169000594 0.96868250042104808717
93.701477123999993069 0.00068741885193687886878 -0.00051124803118744212294 0.0064524501178413375818 0.010741515594212675683 -0.0041455822553774692579 0.26259381642585405414 0.96483776955787137197
94.101477130000006355 0.00071296040155705714143 -0.00057001133692485329331 0.0064969125362840567453 0.014018870230692280499 -0.0020819876456791594314 0.27362100040398862344 0.96173316712215906055
94.401477134999993268 0.00067600493958047767201 -0.00085073639392260389479 0.0066468776242239995672 0.013958411956183159122 0.00078835792067604262053 0.27944483853589568989 0.96005995825422152379
94.701477139000004968 0.00081088991322991797826 -0.00053801040514799534659 0.0064702143917906920767 0.010562862189014464789 -0.00010316886648356352811 0.29070561540283895718 0.95675423201144893515
95.05147714400000325 0.00087913490799943708881 -0.00055102463888525676609 0.0061383597446741135217 0.0071382765411675758518 0.0022594713460032723497 0.30071208108254354752 0.95368557925988595159
95.351477149000004374 0.00046069949879981342581 -0.00024785595099895574994 0.0061928227777138401128 0.0061177428612240901049 0.0024988077518228687425 0.30985453617769098678 0.95076100866211976648
95.651477153000001863 0.0004218629457158652187 -0.00023692419470759605821 0.0059844993836328441369 0.0066034759883192729185 -0.0018286008211699752209 0.31840228976868722999 0.94793092163615244594
95.951477158000002987 0.00052065867582755831922 -0.00020859695195859327276 0.0059362762322010933017 0.0033809698855846721625 0.00067469482269348092767 0.32597292773285901912 0.94537281757769897617
96.251477162000000476 0.00054248789864807123867 -0.0001535903910415503215 0.0058016075166954948414 0.0027186318576545446049 0.00059933899340420897749 0.33574594828896892063 0.9419484635802186645
96.5514771670000016 0.0010702941605582917683 -0.00031666208384130824314 0.0061393344002909190985 0.0063294209263649739775 -0.0014673336006936271367 0.34543048255410152558 0.93842184921562954436
96.851477170999999089 0.0012407491337984998155 -0.0001526379793410212926 0.0059148983668341516273 0.0037994891030910557354 -0.00111254742935698917 0.34972170006679370591 0.93684526930713829529
97.251477176999998164 0.0014191104142870516157 -0.00010489191608393514581 0.0055364405419288404558 0.0019463631146415000684 -0.0024005146731256097985 0.35708425935243381932 0.93406706446735066063
97.551477181999999289 0.0015973153001162475849 -2.4668930992350582721e-05 0.0056213057491498749987 0.0052405606735813009892 -0.0016212681117893563455 0.36615131183259352898 0.93053915815338317241
97.901477186999997571 0.0012702199125615239086 -0.00013777396656547739266 0.0058209722022170388989 0.0082006254041775538538 0.0021764003371581358212 0.37478736416724439673 0.92707197384298167808
98.301477192999996646 0.0012607518007299531055 -0.00026384429950962912407 0.0060558057090994319924 0.0071360817302308131652 0.0014622693717951011985 0.38367013441225772397 0.92344147950257460256
98.701477198999995721 0.0015967485946655657521 -0.00011399962086409749665 0.0060572785501351276982 0.0062433731022559849078 0.0046734643972402437409 0.39080378049678443642 0.92044097267139013407
99.051477203999994003 0.0014289957223756367 -0.0002407155476455697773 0.0060453480820480045427 0.0028266544613306555933 0.0071768985036573043623 0.39760088812460586682 0.91752604100098933415
99.401477209000006496 0.0020112563271731109804 -2.1646577656255848664e-06 0.0062782270072126783109 0.0051281165357511320976 0.0079516774994837450402 0.40806050564928542101 0.91290585329210671706
99.70147721399999341 0.001746552447044133656 -0.00016448655200740293272 0.0062200985877271458904 0.0085414598962670010979 0.0095633482168866502937 0.41428543695191782925 0.91005668096184078042
100.1014772200000067 0.0017863848029417007772 -0.0002039559517630546207 0.0065348146389804353043 0.0095181255840930210216 0.0062664690371419399031 0.42175199954167202909 0.90663961281965477212
100.45147722500000498 0.045469024417118253378 0.053222782954313221926 -0.0010212795813872774502 -0.017699497772495693948 0.05721939023761976606 0.42858059873427706288 0.90151613382568196453
100.75147722900000247 0.45030983144494146631 0.56233594219925098212 0.00014175276710423132648 0.0039121491840377106003 0.0076091076909124734373 0.43871094742955946133 0.89858750334865444831
101.0014772330000028 1.0691679337907531444 1.3747729304405806872 -0.0081085950319553633941 0.0014401980405495094523 0.0060678198791251592922 0.44831471064402239612 0.89385403037167376894
101.30147723800000392 1.8420777165736328396 2.4384421234941493495 -0.0017610277504488791155 0.001513934536598487415 0.0031025377535593093997 0.45911243559457604047 0.88837146157681301517
101.6514772430000022 2.7315658443301358282 3.7089449352904928503 0.047265774802180963998 -0.001945248459747161247 -0.0065963682230319427638 0.46065722173654793936 0.88755147906848808059
102.00147724800000049 3.8755499091964393799 5.344507872671313109 0.18628682216342132283 0.0077129298268611866038 -0.017351967045183474408 0.46453088268663322857 0.88535330743355000749
102.35147725299999877 5.1129980456275587741 7.2013005112324846024 0.16410197126216011232 -0.0010648056858151299948 -0.0091126758854927648185 0.47055917028132465685 0.88232074246909142357
102.80147725999999864 6.3675044859263563168 9.1031471537368791047 0.23161566363978383642 0.0049139938354855602562 -0.0098441440172996295954 0.47814511908796747397 0.87821192805922698721
103.10147726399999613 7.4237662795957355399 10.766999488248734096 0.16993538948778874609 0.0018238671587341628161 -0.0072351769269263536619 0.48414235903656449578 0.87495742862720671251
103.5014772699999952 8.6025680975426084274 12.686097832010084119 0.20293139641535212769 -0.00099360809608034397593 -0.0081084379236213508652 0.48822466702626560187 0.87267974680548321409
103.95147727699999507 9.7625771707632580387 14.619648969302179609 0.2887925758419543909 -0.0018397353341577690582 -0.011974831810769054341 0.49676646148317227247 0.86779968974556098704
104.40147728399999494 11.140545147170326956 17.076762628469001726 0.22818369829701162788 -0.0052764986619427411974 -0.0059207853440885810023 0.50636111027741625978 0.86228506241347013805
104.70147728800000664 11.932317049924773045 18.568082160134611769 0.25111554693447446507 -0.0083517635332602830484 -0.0095541321410628227834 0.5158885228119517441 0.85656173077940966909
105.15147729500000651 13.108393581158706453 20.813149796310124628 0.324219290131647353 -0.0054468045339259342497 -0.0063568382092212289552 0.52383133258266367793 0.85178087436442351255
105.50147730000000479 13.968167735992375711 22.59108002198492926 0.2764426894057103179 -0.0081859542459210999504 -0.0040183100752700928737 0.5304173168590751164 0.84768762720311208181
105.80147730500000591 14.695390566305750468 24.115710335872055481 0.30015138623097648019 -0.0068413395870862304254 -0.0045436603979216051014 0.5365223417637002834 0.84384615186136724407
106.1014773090000034 15.226460839354047039 25.734138755236429574 0.23674293506905094708 -0.039566794311628961101 -0.023755130408028325706 0.50098269064885458945 0.86422595785907330157
106.45147731400000168 16.544062404064682426 27.268702338206740166 0.41837452770607930219 0.013430254397863486057 -0.0023296825402077214577 0.51384293526439717148 0.85777598399870058632
106.90147732100000155 17.445003438614492097 29.65313075989786995 0.38861916709896149325 -0.025929747397337530451 -0.022933367303230520196 0.51727280864617164458 0.85512019640477821003
107.20147732499999904 18.127011639923804154 31.189898534097451943 0.2903462672583745352 -0.0468952315615172588 -0.031731446669891527623 0.47415653028606274955 0.87861797007351805089
107.50147733000000017 18.956561610703584364 32.311855394518524065 0.19364389889738609085 -0.05156802767288313355 -0.030119235988318480285 0.41783722354305080637 0.90655701683194933604
107.85147733499999845 20.286444967149179774 33.65289308293980497 -0.33759815209325533258 -0.079730654216049912097 -0.018045509606452746904 0.29205627820703766728 0.95290110332666599913
108.25147734099999752 22.753283849196254351 34.490218501946692697 -0.36978560259197035265 -0.059590262955208750384 0.011540653323542444247 0.09817494291260975281 0.99331641205906828773
108.70147734799999739 25.466844265038385942 34.296687346658877971 0.23203124931853463808 -6.0130327406552439734e-05 0.032436385754306906737 -0.046080105960306746993 0.99841098806965677959
109.10147735399999647 27.691875595117995346 33.902301428447650267 0.49762086024948415375 0.024715150491394780735 0.023519670596853357869 -0.090743295115434760567 0.99528972707588836411
109.45147735899999475 29.607717883898995836 33.551888507516856919 0.554425940321824684 0.025058253784286051852 0.0097676867291426380108 -0.10106562912485310413 0.9945161712223895556
109.85147736499999382 31.531985452094971834 33.208492181485809169 0.5595658512324207523 0.015253814510395554901 0.0057200645198759152849 -0.095409473950977485845 0.99530479466602017613
110.15147736900000552 33.190367939539520137 32.942913874239948768 0.60064908445757869693 0.0089145519456238064143 -0.0014758086055687410967 -0.088363401168715924316 0.99604731920048106275
110.50147737499999323 35.134644885207571008 32.614818707444271695 0.59810595786211973035 0.01007536953928981488 -0.0011019049821349307956 -0.078007086829439270526 0.99690128254428556076
110.85147738000000572 37.085572668479493075 32.371953470913403805 0.66400717101174966395 -0.00050253966149689120648 -0.0063330406516513828782 -0.070825626123413712443 0.99746848107307106712
111.15147738400000321 39.045308114424656765 32.145239447805870725 0.70415214349674415395 -0.0055665331457473519322 -0.0067113219902080710477 -0.059132613395439001525 0.99821205457503192626
111.50147739000000513 41.002842343844214668 31.92080682709838868 0.73810993419141079919 -0.0066372159148160008585 -0.0084491173800890651685 -0.052884564434158322366 0.99854282963977414322
111.90147739600000421 43.248025304192211138 31.703796197208546914 0.81428438885694409688 -0.0033544772839098633069 -0.0068894434160987113452 -0.044896840151110777029 0.99896223992502020117
112.20147740000000169 44.931760708662999093 31.598049600023024652 0.84697439833993892755 -0.0052551544293343950207 -0.0048061681921669832662 -0.033635256816536937552 0.99940880204154602939
112.55147740499999998 46.898332994990468592 31.505379578116375683 0.96528584197597966376 -0.0035135687190944414442 -0.010046562078484236671 -0.018596559307709835396 0.99977041834972002476
112.90147740999999826 48.874820949779156365 31.461960234857631491 0.97417806286785701975 -0.0020764521050348166802 -0.0059017685048495206399 -0.011393485569889156769 0.99991551941238487888
113.25147741600000018 50.845253771467056936 31.441668409882414181 1.058454581756304691 -0.0056265164843845921414 -0.0077997773369785066561 -0.0016254099427767628762 0.99995243078271600634
113.60147742099999846 52.81643170283786759 31.481894701743854625 1.0859417759624545585 -0.0061380939820315392683 -0.0068461315347495884515 0.012980466390505327259 0.99987347288422534497
114.00147742699999753 54.785285240083290148 31.558607200608562948 1.1603162314206501016 -0.010863096661269514009 -0.0065493219206717561559 0.023502139835341353397 0.99964331085466051618
114.35147743199999582 57.147988570021865939 31.673786732249016751 1.1439893346208245273 -0.013059456202376992437 -0.0012408181057156758825 0.033044407395347467904 0.99936778921176816493
114.85147743900000705 60.32464894528796151 31.986861130219217841 1.1242556420931664185 -0.020534126607063708098 0.0016129918609572417316 0.05148318488830087164 0.99846143119075891903
115.10147744299999317 62.829061029167363017 32.260397499016796985 1.161411023365313433 -0.021501519819750083973 -8.3923499547611070458e-05 0.061771959245447809195 0.99785865865525558149
115.45147744800000567 65.573120399099011024 32.62736002604809471 1.2722653699965089658 -0.024825737489498005128 -0.006996929879665913718 0.069885891658630530654 0.9972214838627574407
115.75147745300000679 68.577146331826767778 33.088558656536370961 1.3417414899723760779 -0.023978409937123492529 -0.0068372233740398311377 0.079615941290050729062 0.99651371798180476969
116.00147745699999291 71.836790991353922209 33.597215607974234786 1.4242026778345242555 -0.025034052658352089205 -0.0097764079118050854073 0.083790057477200419189 0.99612094864218581058
116.3514774620000054 74.754407866774712943 34.061939812026764685 1.4749157482586541246 -0.021400172977076470371 -0.0099995543689030252227 0.087519351548498866555 0.99588272633553842628
116.60147746600000573 79.11772876506358898 34.855678383699881806 1.6198492244598898804 -0.024533836171288053024 -0.01238044814762364991 0.094064737990805211143 0.995186736473665845
116.90147747000000322 83.084733363570563824 35.685905027205492956 1.7596324065678183857 -0.027461670923961331581 -0.013733234314229774559 0.10177338488088581714 0.99433366282914381618
117.35147747700000309 88.683996133866699552 36.934465816548311068 1.9882600071556897348 -0.026683506137193471058 -0.015925493031354369389 0.11358190739477784514 0.99304255673384855818
117.65147748100000058 93.858533571380149851 38.259058300969080335 2.3049929885487090431 -0.028422580730996585552 -0.020428615430385398122 0.12610965662660775233 0.99139859949553410523
117.9514774860000017 98.498404744765323926 39.470018540233411386 2.4783191913506614767 -0.027207866434310779002 -0.019805497891969333496 0.13134584352675549024 0.99076523134675498206
118.30147749099999999 104.1463711083434589 41.060734555837967719 2.7169389743790648417 -0.025944251949507300681 -0.020521450805007609292 0.13953632414511057958 0.98966427645525767431
118.60147749499999748 108.22488973587996952 42.244643729049428771 3.1457519122976460579 -0.025411999168192651866 -0.025330387701995981525 0.14468588621334632638 0.98882687872438057575
118.95147750099999939 113.03126737928837997 43.930074718699458458 3.1086813918400180157 -0.033327084659756214813 -0.021841994397138294465 0.15555715995435412391 0.98702289876971560645
119.20147750399999609 117.83712295173104678 45.593931604402648361 3.3613033016743996129 -0.031653486138200154221 -0.023331283018707269644 0.16443445852958160636 0.98560388437550461305
119.50147750899999721 123.40917127124257036 47.633801337256670649 3.517008315545108843 -0.03709207816138796604 -0.021871553946374532734 0.17430469829321737496 0.98374980814155721376
119.8014775129999947 128.20356930082087388 49.308331763344853016 3.6419628435675783784 -0.034224424318407394019 -0.020218196923328938391 0.17918068973316467196 0.98301281462653911092
120.10147751799999583 132.91601508036197288 51.222305268100392084 3.8134584833983935503 -0.038459205131841159298 -0.021544013329947573482 0.18843560031775496988 0.98109569847347377625
120.55147752400000627 139.91873339391230502 54.248595422147189993 4.0723325427335081983 -0.038827781810128726703 -0.022366220124637400252 0.2031586955781452819 0.97811998239890174389
121.00147753100000614 146.10798102580233149 57.00450667814578054 4.2740969611927166483 -0.040549522801645122849 -0.0243536914437319299 0.21302379431881726668 0.97590137666038601072
121.35147753600000442 152.18982830213744251 60.011006216708615568 4.478585380912670999 -0.042172755900440443699 -0.024366912972735629145 0.22696579528785340574 0.97268403913156364915
121.7514775420000035 158.15556751434226612 63.252703309526310704 4.698160316775704004 -0.048760867780594581433 -0.025276654348139193651 0.24293722997369077143 0.96848591668178540814
122.15147754800000257 164.20141713603698008 66.27273742149712632 4.8578703411112762467 -0.042459602040780690391 -0.023193026348808071235 0.25019119592884742076 0.96698688264268362058
122.4514775530000037 168.68221797435836606 68.649706107771805819 4.9782988916476336172 -0.035977112515900508405 -0.022552787746340775127 0.25653014200296647696 0.96560307859069327563
122.80147755800000198 173.89208824518831875 71.447967176282404012 5.1512047965754170775 -0.033327527512409457766 -0.022315332837187288467 0.26165957616761875704 0.96432648414842225826
123.15147756300000026 178.9353426166051122 74.583030115889727085 5.3201529919730141671 -0.032682621289016076938 -0.02223737505065985498 0.27194335325653118396 0.96150099221796370141
123.50147756799999854 184.00820276656318697 77.63637372371846368 5.4708848485142240747 -0.033911660668810107711 -0.021027120598641712429 0.27918809190838872469 0.95940704021107048316
123.90147757399999762 189.69686683008217187 81.316605270603872668 5.644907897018970111 -0.031735504623396366963 -0.02115183503951616889 0.28804513474354165314 0.95685707290657284751
124.35147758099999749 195.26067881571526641 85.197963240001811869 5.8422673099399862195 -0.032390146906983038888 -0.021463030555873677946 0.29881487980925580672 0.95351973461868200221
124.65147758599999861 200.17159040468519038 88.50029740717036475 6.0142219081147763049 -0.031049916022457688808 -0.022435852785029377493 0.30506202115906022598 0.95156171553460255907
125.05147759099999405 205.60623420748822809 92.554690912519120616 6.2399048893532569338 -0.034884637169022320036 -0.023952222493612479459 0.31538078836883681744 0.94802126107754203233
125.35147759599999517 209.49626867991048584 95.86975486600741192 6.4195447061377244324 -0.041762362310821518618 -0.025464800434558693826 0.32772923261366254666 0.94350463651404892218
125.75147760199999425 214.1808002079077653 99.487255457004252435 6.5661897745347168609 -0.03536751838176250412 -0.024400481826139495262 0.33559158821249313043 0.94102712025275048191
126.05147760600000595 218.1502898391857741 102.64467120704276226 6.7224483899073996795 -0.036050225712546686563 -0.025024355137485337214 0.34183872547653448848 0.93873342789132951935
126.35147761100000707 221.97613287869697274 105.99690442495412412 6.8848357688559227441 -0.033676789070842261253 -0.024585297947936225055 0.35068709313440316055 0.93556400086345326006
126.65147761500000456 225.67985411694797904 109.50071118056193598 7.0444856897683818531 -0.040231734825852412396 -0.027177077897875028673 0.36091904738072794201 0.93133251590805266051
126.95147762000000569 229.51600926047436246 112.80858279637996588 7.196574640095017017 -0.036399967301940026887 -0.02603113420773770989 0.3663297665318162033 0.92940837342097448737
127.25147762400000317 233.87379040356080395 116.8153511679093981 7.3597993929634935029 -0.038025544407161777916 -0.027383140701939697598 0.37464297383141004216 0.92598426754270191097
127.50147762800000351 236.86768045041156938 119.8148864632434254 7.506595151107287478 -0.037526482631096043374 -0.028011472497846631041 0.38187302593984639998 0.92302768786715483351
127.80147763200000099 240.51871420299170268 123.25704896441793323 8.0215319949926833232 -0.034646475413896038464 -0.032534329744821927077 0.38743737468002031887 0.92067009282940381887
128.10147763699998791 243.87263742148041956 126.76436414650288498 8.2277942790816620544 -0.034753350992755338567 -0.031471704348559267905 0.39430815207801289679 0.91778146506943247829
128.45147764199998619 247.57482455052459613 130.71542323541763153 8.3183365248668241776 -0.037017658355001224757 -0.032257260166975817994 0.40415367746993913212 0.91337230477169428777
128.75147764700000153 250.64160828236705925 133.92437599203719856 8.3567841221207235236 -0.03499034798738879376 -0.029130805460995414652 0.41085003608338943604 0.9105653845667496249
129.10147765199999981 253.56117040090444448 137.04427826372526056 8.3922987645290483272 -0.030247018589004057848 -0.026215676667728719795 0.4176322798819521176 0.90773406621319019383
129.55147765899999968 258.08301695055394021 142.05619914763997258 8.5298103688425399582 -0.028494666211589882859 -0.025365082318502516628 0.42667073860007159736 0.90360209573624550305
130.00147766500001012 261.53330483274788776 145.71584144805510164 8.711241030397889773 -0.024764023185553790674 -0.025493899205276775166 0.430333732324856999 0.90196989034132113439
130.30147766999999703 264.17447701092248735 148.99451728177800192 8.8539998403832296248 -0.02207862364459409546 -0.026778056641774062446 0.43929134321974133703 0.89767398638517181819
130.65147767499999532 266.36533352935703078 151.5248712049458959 9.9163083035610135596 -0.0089119942147530811088 -0.042662571403964143213 0.44178162216440652887 0.89606332347558081963
131.0014776799999936 268.44752559738685704 154.33139235028787084 9.0935124678919390107 -0.01756835017338870264 -0.023458466401485515707 0.45276805875851183769 0.89114653025993673108
131.35147768499999188 270.34361169440768435 156.87435159593840694 9.076709804315880703 -0.017526791330735286278 -0.019896116601119097356 0.46219831089002100244 0.88638009766705327941
131.65147769000000721 272.02884224162875171 159.32712220361287336 9.2787600654990001203 -0.01389875915591192064 -0.022227607117433854228 0.46777720596659450036 0.88345755051040519845
131.9514776940000047 273.19081795515336353 160.9481319671811832 9.2487280116128509633 -0.01192761796213466681 -0.017785335268952668503 0.47591069199403773782 0.87923286279851742275
132.25147769899999162 274.66970992868226631 163.13380228502410318 9.2567131926669379283 -0.01220271689296508616 -0.016641982394382102972 0.482400986182302427 0.87570738643268120072
132.55147770299998911 275.64489517376728145 164.62228596858150809 9.3372992140724555554 -0.0074145629342899938702 -0.015978191823666575144 0.48670788645319013055 0.87338717354149875138
132.90147770799998739 276.99300777271309926 166.95227884931125573 9.3969004391511621321 -0.0075585779947457123681 -0.019234141698182001534 0.49977424488958804849 0.86590912908738504328
133.25147771400000352 277.63440371154604236 168.82485912653353921 10.121409808968218513 0.0059210409670441953994 -0.045187547796230964625 0.51062365433111678303 0.85859566178473445408
133.65147772000000259 278.98552855260106753 170.13068320662148381 9.244354990745680567 -0.0099205924207161205741 -0.0051517665069631185179 0.51944916407599739383 0.85442823401888312596
134.10147772600001304 279.93909266692185156 171.97779113910701199 9.3351809463485331264 -0.006265069527499139701 -0.0089427277837736112581 0.52142073119570320205 0.85322986211392015665
134.5514777330000129 281.17230810187817269 174.61704118823894305 9.7812557872409033877 -5.0959644712781389101e-05 -0.020599232325038664693 0.50486984603768503277 0.86294965530592693259
134.95147773900001198 282.41223213136328241 176.46900626408086055 9.8261880757465931424 0.010687354405884967601 -0.010369201381482145985 0.52186201928164266395 0.8528999313810500249
135.4514777459999948 283.3980886773764496 179.14061004544740285 9.6882975895243266251 -0.04173426653786002638 -0.034298494063942169818 0.46992498105373331496 0.88105185799880192388
135.80147775200001092 284.63009441890034168 180.67576162906274817 9.540114086594250864 -0.048598804174190525507 -0.034681135631379138295 0.39983791211670532961 0.91463928359671409218
136.15147775700000921 286.14828778298448242 182.00632846478708871 8.6472618649211803188 -0.070765081633407722617 -0.026917700475476199345 0.26888239257386092884 0.96019268877985408661
136.55147776300000828 287.94917211589313411 183.04083117761214794 9.5670449982336940309 -0.063112566621964780178 0.0036754100320497153608 0.11903888498400103102 0.99087488572334403436
136.85147776700000577 289.60504717467011915 182.90220451787990896 13.588384354779233121 -0.013673248087180235946 0.011098947420051848839 0.015053040723061687084 0.99973159478827278157
137.15147777199999268 291.53517420137740146 182.5318528680882082 15.300528612748509616 0.012399174355833219446 0.013438977255561122132 -0.066895195672159013522 0.99759244542127611943
137.50147777699999097 293.10207384229619265 181.96998998440511741 16.298760972397808189 0.027058183674796440488 0.006204783408407999433 -0.094900556808584848878 0.99509961294158699729
137.80147778099998845 294.98609961710798189 181.50318068686300421 16.347633238459533089 0.028437862870452870756 0.0033528738337420989357 -0.10976253199808723438 0.99354528470613012736
138.20147778699998753 297.1124073502572287 181.07407124577164836 16.115576527500209636 0.020887639194916918922 -0.0096241146843980655834 -0.11253088528036286897 0.99338204272244745585
138.6014777929999866 299.00623474859520456 180.67553342687972417 16.078183453634277811 0.018920609066082019756 -0.016007169490150397612 -0.1097985905277879537 0.99364483121263869059
138.95147779900000273 301.19980787139616041 180.25111289008665949 16.023228815660566227 0.014278190764184571157 -0.017619702151735680551 -0.10545075752621231591 0.99416589013189027302
139.30147780400000102 302.8531635180432886 179.94919676783783302 16.022116447781332482 0.010153144870736192582 -0.021189778349426362236 -0.099794916540505304581 0.99473055727438552953
139.6014778079999985 304.77805702454793391 179.59843716063900843 16.094482299827582494 0.0074411027982726560964 -0.022694472233084277829 -0.094646183312781170804 0.9952244424769373099
140.05147781499999837 307.27294576537917692 179.18988904109659188 16.193744430097268605 0.0018457223443060441232 -0.025035730856373204084 -0.083022446558003129558 0.99623143840025374374
140.50147782199999824 309.79393635563536691 178.80240181219753026 16.289799005957231515 -0.0021062060838275145983 -0.02135373994909024048 -0.072157957918703524713 0.99716237935209017795
140.85147782699999652 311.4535045267234068 178.60996264101481756 16.390201509185850171 -0.0067324911600584614463 -0.025624085200009808633 -0.061961406366513260835 0.99772684836157743415
141.15147783099999401 313.12901524032525913 178.41086065964688601 16.465151619605922662 -0.0082777064688352060273 -0.022505676613432640254 -0.05418572551381393293 0.99824289691754330978
141.45147783600000935 314.80137197016773598 178.25544559139106582 16.548275917802609314 -0.010660252153292181301 -0.020876554455518326475 -0.045896496191906700768 0.99867113712943578197
141.75147784000000684 316.46788332542365652 178.11659459119587723 16.612833901243529766 -0.010501508329319840171 -0.018887407009721766948 -0.037629502725033875388 0.9990580587252799738
142.05147784499999375 318.10988550744121994 178.02655338529925189 16.70350633061525869 -0.0099372427544679314826 -0.021637069795268561168 -0.028372023930630620864 0.99931382291810266771
142.35147784899999124 320.03253100620315763 177.95399756683838177 16.796236720538832543 -0.0097248615085692245025 -0.018939349224695326002 -0.016358614001678196265 0.9996394969525405072
142.65147785400000657 321.40203432199581357 177.92968043975119485 16.860405448111329463 -0.0081991360205657965593 -0.01887781328981876644 -0.0077808248495024236874 0.99975790124338226317
142.95147785800000406 323.30072352442869033 177.9085816575462502 16.931377115825721802 -0.005617893605044481202 -0.01790480150570887205 -0.005528926761592536411 0.99980862584964158568
143.30147786300000234 325.20134267781543258 177.88933218335139941 16.990404913532877629 0.0028439065802258450127 -0.016930601364654938173 -0.001336206506463616427 0.99985172975044955823
143.65147786899999005 327.06492696064822212 177.93011915161747538 17.086382691474607753 0.0051172252513833095533 -0.015724540390225808656 0.0027314789435500391734 0.99985953606395316928
144.05147787499998913 329.05408504331711583 178.12463881907530094 17.199368993723034293 -0.036178368467876635683 -0.010320043460252132511 -0.0072474462396284796556 0.99926577890018064565
144.35147787899998661 330.68282850352403557 178.13393901677079612 17.355157329429687252 -0.040513616290119257302 -0.023776067857173951298 -0.055904412499598842012 0.99733045785006624318
144.70147788400001332 332.96117804722359779 177.64827894511154227 17.157244956048778306 -0.037746717059192552712 -0.011517527240829916399 -0.12771524288166932748 0.99102540262759475365
145.10147789000001239 334.86477409023586915 176.94054172610108822 16.70022238401055148 -0.045432345952143682322 -0.0047320726091440151045 -0.24287547590447480794 0.96898143048991469684
145.40147789499999931 336.18674876140090646 176.28357533886199349 15.68809443806552828 -0.04926471257453992475 0.026123490973209637089 -0.36524486334191536008 0.9292398727544283199
145.7014778989999968 337.26399599666956419 174.87820395458339817 17.088443814652581665 -0.027792991952797725663 0.026496895519232878391 -0.48344398081034029024 0.87453266465261658702
146.15147790599999666 337.66104479104211578 172.35348983451484628 21.524449012160154382 0.02342385903966541158 0.0057506325426186343658 -0.5898051374020681914 0.80718532750984595125
146.55147791199999574 337.97528972397890357 170.30803846553723702 22.66625344064261327 0.033421256143096461644 -0.015861880730303527798 -0.61918011153825158743 0.78437708396726724125
146.95147791799999482 338.58015655117287679 168.13461906974666249 22.228871196065384197 0.028502755936528945818 -0.025488016769914054876 -0.6251882215378883334 0.77953681218750126014
147.3014779229999931 338.98367582602816128 166.49443122966053465 22.092321699105944788 0.02891153824570893982 -0.02810802349336683631 -0.62677834492955086798 0.77815356344293407087
147.55147792700000764 339.40226327148184282 164.90889161123715212 21.859629304676978734 0.017930370409238328283 -0.030036511810591786514 -0.62621419305511127895 0.77886590257346310917
147.85147793100000513 339.88818197037437585 163.04595548552916284 21.724222607459577006 0.0074108103883117103575 -0.026628743309838411729 -0.62047671357953737559 0.78373760776465495326
148.301477938000005 340.46007978136424299 160.91918656758167572 21.734050615301796938 -0.00069466558147244562328 -0.022724447302238850316 -0.61090022747988059759 0.79138108961458497603
148.70147794400000407 341.14962280105964965 158.53915844879421115 21.836818090678310256 -0.01065654754691166585 -0.021842709830150044276 -0.59992885020195407808 0.79968413058970833074
149.00147794800000156 341.62001155948570386 156.94659436816078824 21.927417463716707857 -0.011479367350921299701 -0.021827615377368918964 -0.59375609203391566115 0.80426704676044802333
149.40147795400000064 342.21309491082047316 155.09555016435237462 22.039098651466943579 -0.01259423272651057947 -0.019657791878928104756 -0.58927585897684986449 0.80759452607578452454
149.75147795999998834 342.91484543940902086 152.99382106933643399 22.184752996554919946 -0.013766243203682132848 -0.02241457123749863653 -0.58164780749501099333 0.81301531694091888625
150.20147796599999879 343.74370982218493964 150.6222402070114299 22.317397942296437918 -0.015028048908179507739 -0.020708122978725207464 -0.57505836479553851248 0.81771217947844743179
150.65147797299999866 344.6375635141577618 148.29814448961909079 22.502321588984440126 -0.015459155453521023285 -0.021552084240859775699 -0.56375981356849536041 0.82551280715852870529
151.10147797999999852 345.51802093467154009 146.22611893606065792 22.667744542289511855 -0.016761867723047767231 -0.02248763630424662624 -0.55053099421173989914 0.83434343673101196703
151.45147798499999681 346.29008473509793475 144.42978441023345226 22.777289832826738802 -0.017750479144549771021 -0.021413018349365032372 -0.54544750189624047199 0.83768336846953062036
151.7514779889999943 347.10685865772290981 142.64695622843649403 22.896733428730428273 -0.020888172210952470759 -0.018624082468385309841 -0.53594113814612043267 0.84379139854382101404
152.05147799400000963 347.81131005905069742 141.1279675351553351 22.98395231850236442 -0.017872933568434844903 -0.024850567285600692891 -0.5344092493600478555 0.84467139276151181893
152.40147799900000791 348.54284301657230571 139.60071210811398146 23.079307592041217845 -0.017207788867406426103 -0.024893254867039960737 -0.52906585827293028945 0.84804099869897031638
152.7014780030000054 349.43176357819487521 137.8356467626509243 23.194048137421404476 -0.0175086609072316636 -0.023488930576222012692 -0.5221241057453303025 0.85236619778899025412
153.00147800799999231 350.20372458660528991 136.35377368615039018 23.307278532323042697 -0.017584136797201686819 -0.023387722760178818876 -0.51659911195196794864 0.85572727553095351283
153.3514780129999906 351.01099313952261127 134.87390606747058541 23.413219568402528381 -0.018723895824550227523 -0.023335628501502544974 -0.50821299399109842732 0.86071157591041791424
153.65147801800000593 351.97221281512719315 133.16314150733182942 23.534694087805327456 -0.019027731729468179422 -0.024658566409392467661 -0.50084692534046104662 0.8649752932337845257
154.05147802400000501 353.12095195203875164 131.23324840658014523 23.688526482086079028 -0.017503000908705750732 -0.024625886098942999236 -0.49074845181598975019 0.870777335335067737
154.3514780280000025 354.00667294505478822 129.78855164893769825 23.790292963052642961 -0.021696557730790249491 -0.025888162661896117062 -0.48527402480703679677 0.87370943869469852583
154.65147803299998941 354.90623439690995156 128.34135961730430608 23.866318252488518681 -0.015496746425267668781 -0.026614647751281698268 -0.47930414809796501041 0.8771083427897549134
155.00147803799998769 355.84400836695101589 126.92621682733346233 23.983134048111132586 -0.016078187567603558633 -0.027561989063657463261 -0.47200799471347498759 0.88101661821441257239
155.40147804399998677 357.11893013999559798 125.05570020186054592 24.110232722189593346 -0.0168300544892307051 -0.025290400194981885879 -0.46207422306261369815 0.88632079819044584656
155.80147805000001426 358.41571476497603044 123.20535080240546222 24.236132228623759488 -0.01586107830783633349 -0.026416100037370330439 -0.45497271720599635758 0.88997215824536934914
156.10147805400001175 359.42178442163117325 121.85157459127661639 24.349295539671643951 -0.017410511953892180564 -0.026111728298720111863 -0.44766967681326547135 0.89364809191351368689
156.45147805900001003 360.60833553818633845 120.26598337163278529 24.443609265681399023 -0.020616875887730569394 -0.022989064459782559274 -0.44132773170556560682 0.89681451848836291063
156.80147806499999774 361.81231686411211967 118.7130268844026233 24.560095507386108693 -0.020775458021844817741 -0.024157368565120494047 -0.43432194644900296021 0.90019400615686218092
157.10147806899999523 363.05469858223261781 117.15901550991233648 24.642339389424282814 -0.019514879217696175923 -0.021451898289739791681 -0.4270843835589681059 0.90374659881459118438
157.40147807400001057 364.13132457943987674 115.85989268407443831 24.729512300514290501 -0.019064825159608542182 -0.023232149088336331855 -0.41947860840663336868 0.90726759932205514048
157.70147807800000805 365.22571751574872678 114.57709887458416631 24.808597779046706933 -0.021338480984533683693 -0.021877960054690698266 -0.41366415157969504968 0.90991647627184391034
158.05147808300000634 366.34560011260219881 113.33297417188731515 24.924231157156082617 -0.023658528649594931514 -0.024120744065281456842 -0.40349588153460441697 0.91435744504678584388
158.40147808800000462 367.67607269214772714 111.84932327232765203 24.974929807920521085 -0.019481587526915943032 -0.022820163333903110969 -0.39816471509194206746 0.91682308410543289501
158.75147809399999232 369.23205377026221186 110.23587677006777596 25.099743579020593387 -0.020625856870237872787 -0.020855354933296384179 -0.38689743496860040661 0.92165611971802818836
159.05147809799998981 370.41193409912654033 109.04395048159379655 25.182330731382553068 -0.017446993564183447406 -0.022047725462460320695 -0.38095040430380028296 0.92416789041725222464
159.45147810399998889 371.80928847106645208 107.66026390392691781 25.269318525172401735 -0.012457380849919619595 -0.023781106060725740181 -0.37575663509510354165 0.92632943591299843344
159.75147810900000422 373.24046175197571529 106.33330957820415108 25.410798551818231772 -0.015085568350620474215 -0.021883299904684405668 -0.36333598282665596768 0.93127896486295036471
160.10147811400000251 374.49221286352047855 105.19507381367640164 25.494868733061959887 -0.015157155134144558589 -0.019344443386405178048 -0.35464098387642484234 0.93467953102305123547
160.45147811900000079 376.18237653665204334 103.75495716151178272 25.63167749561237585 -0.013710651107029623794 -0.019803733206657344462 -0.34615635339388717284 0.93786758617746623923
160.95147812600001203 378.32744835899558211 101.9629342014737432 25.778240281586057847 -0.0097819700242733273465 -0.022473992875952027853 -0.33769236701368871012 0.94093735071329165365
161.25147813099999894 379.63546618237330676 100.92275211607417873 25.88596635849042471 -0.0086675145077371399532 -0.023826958449793579631 -0.32985642252272157071 0.94369056939433371145
161.65147813699999801 381.19479543287616252 99.758243468582605828 26.037587792449897961 -0.011500813926487961358 -0.024731651835742978623 -0.31890296634622561367 0.94739483571111049454
162.05147814299999709 383.22025148294875407 98.252304104061991552 26.183851952150639875 -0.0088189555011713247762 -0.024935880269494007516 -0.31063486725168770741 0.9501612532336709549
162.40147814799999537 384.58964589254264865 97.261065198799045106 26.271760551329620625 -0.012564923229969578514 -0.022952620597943580033 -0.3035150000559004857 0.95246729321955125869
162.80147815399999445 386.66739605285465586 95.835069078803527987 26.417853737654859003 -0.016509102992124692622 -0.021540616156046375751 -0.29466467270760399177 0.95521525429200193624
163.15147815899999273 387.83235877637571321 95.07561228613616322 26.507080944305091208 -0.014033912682021882495 -0.022128354681579923829 -0.28682957754313387344 0.95762319241983007156
163.45147816400000806 389.71551858248750477 93.882041888423060527 26.655690812396549916 -0.013751634856758563827 -0.024663890205630343427 -0.27960098626136209443 0.95970092921720384638
163.75147816800000555 390.86221566568974595 93.222110751146942675 26.798151409516368204 -0.013983745321911260351 -0.030099516664074277977 -0.27118948757491850854 0.96195360376278760128
164.05147817299999247 391.39620800286297708 94.628357220105414171 28.269500761255503818 -0.040438128530737790789 -0.14448617007249134336 -0.26241993651462675041 0.95321785617893972642
164.35147817699998996 391.90304635483704487 92.096057354197071732 26.684020163221770616 -0.0026221757848046540161 -0.0035381443087164473824 -0.25939812911752152536 0.96576043423787760744
164.70147818199998824 391.8878595803186613 92.219978524415083143 26.733363396634395315 0.0010154657873553706894 -0.011701842760198716969 -0.25404911720611006443 0.9671199934610216209
165.05147818800000437 391.88204022308514141 92.284172232388016255 26.75487784522237078 0.00044671698743907662819 -0.017175432779646865322 -0.24701250973340557748 0.96885996149493613938
165.40147819300000265 391.87892481118478827 92.334482009267873082 26.753787013135244877 0.0027013495257539590563 -0.0167223424255643488 -0.23649834844753092611 0.97148422383285881754
165.65147819599999934 391.87725872094927126 92.371095152552641139 26.757765937305585169 -0.00033059657449235115576 -0.018779401794716564511 -0.22832674657140891727 0.97340337043501812264
166.00147820199998705 391.87604377164097968 92.407019959466907721 26.751266491236300737 0.0025166270041177178987 -0.02082251662943322007 -0.21990267552854306232 0.97529631532428517904
166.40147820799998613 391.87477047413267428 92.43437181373228384 26.751094056694796564 0.0036969365216850511198 -0.023878388626061779199 -0.21168517619166454802 0.97703917086147640259
166.75147821300001283 391.87451412900821879 92.44893573179817281 26.750743768850146154 0.0034669718162146823288 -0.023229781767926459962 -0.20106640156281987974 0.97929600198715149872
167.1514782190000119 392.00275957053389675 92.250583441322049794 26.740696391310837754 0.0078597741338044570247 -0.010535370129300235947 -0.19418507006027152517 0.9808768467511564948
167.60147822600001177 392.60238087571519827 92.154054216810720845 26.780458067712601178 0.0068492584304548440738 -0.019885375270718069762 -0.18521827653892794507 0.98247231490014241828
168.001478230999993 393.65885088413568837 91.694781851637259251 26.823524185657049657 0.0069575652938255990246 -0.014342559014818229493 -0.18019829009421919896 0.98350112330043026887
168.35147823700000913 394.98787740236861055 91.348048560999941969 26.97584966157981512 0.0027802501766542686394 -0.028759853143782151269 -0.1692561915352541746 0.9851484571794673073
168.75147824300000821 396.90490559747053112 90.75373350469337197 27.164487344734002505 -0.0014741487663230321524 -0.034199403795373450876 -0.15907143666716683228 0.98667345444280563083
169.05147824700000569 398.48538410361322804 90.291182328509592026 27.327437147842729814 -0.002203986391955473946 -0.039136199091677023598 -0.15238602950919266643 0.98754341594436456653
169.35147825199999261 399.76314646910816464 89.892682578829322892 27.439485810438632996 -0.0060855473150044931546 -0.037627710492346408411 -0.14799692389727159281 0.98825302025034367226
169.70147825699999089 401.58717860580833303 89.206460256371329365 27.418580189881737397 -0.00027831449608363678086 -0.028388341268045191174 -0.13286621398731335297 0.99072730546895082515
169.95147826100000543 403.25796650004451749 88.936515392579238437 27.564167291529290793 0.0047956604414717309004 -0.035138429872933509002 -0.096352665800348138991 0.99471526387211006703
170.40147826699998745 405.73116242398339182 88.497753891701151474 27.952397587635683607 -0.0063023474919020544896 -0.031214301177352722638 -0.06492437705127455938 0.99738195947320240631
170.75147827199998574 407.44360600452148446 88.246824523935856632 27.528965255317672245 0.01874909673567464255 -0.035247378909121482304 -0.015157748198463123074 0.99908775206244271327
171.05147827700000107 409.38757723890205398 88.119161716180983035 27.528762939091432571 0.02294063018882270058 -0.031265721732991164084 0.079590948002257855265 0.9960730209814723235
171.40147828199999935 410.98590236542747789 87.774073939090186514 26.650684335963426008 0.035534926201217183206 -0.016666626997748641009 0.17661556619836912829 0.98349704338184029684
171.80147828799999843 412.85576735879362786 88.569404743246153089 28.043001017681564946 0.011577959578224097589 -0.0071577465383932921753 0.30356003958987548552 0.95271507801686983186
172.10147829300001376 414.24224688957656326 89.807885902226786357 28.998559866007138197 -0.0013558778448960293484 -0.0025639124134539470826 0.40525560056170611967 0.91419882200852609078
172.40147829700001125 415.18617438628928085 90.615768114796523491 28.734153365766193389 -0.0016658232270701114983 0.0068030472597984028432 0.50067797017203230503 0.86560528751005827441
172.75147830200000953 415.97527043505704114 92.819147800968465845 29.526098175783861421 -0.001832434529513903617 0.002841741460094236206 0.58275404254656026914 0.81264155233707491277
173.05147830699999645 416.20167534081349459 95.054513833397734857 31.52688597951429017 -0.015373401930009210348 -0.0106509301971229077 0.63376965591780587417 0.77329569986962976014
173.45147831299999552 416.43287885347012889 97.943900365801695784 32.442590774276105492 -0.021695514311567964949 -0.025998374650678550413 0.67005805879486468601 0.74153596475042071745
173.8514783189999946 416.61502042794506906 100.3826720000092223 32.416443060029777712 -0.016757512542832614377 -0.031452362327248184481 0.6915124954359045395 0.72148486008607304321
174.25147832499999367 416.75218563563612406 102.7225659135742859 32.132397485382078628 -0.0030532827519498570261 -0.030982754596621166904 0.7022115606641785579 0.71128733325683579647
174.65147833099999275 416.77716714910536666 104.76115787105953814 32.129590017962271986 0.0024308641342279868267 -0.029798327967747395562 0.71091921586739004191 0.70263790038709317276
174.95147833499999024 416.77003647913420536 106.76060663172154364 32.109894654571959904 0.0048557616546608031033 -0.027536321779906409307 0.71746929675459458764 0.69602872122927084142
175.35147834099998931 416.70560447772618318 109.05159295368434869 32.165670316111196314 0.0120858555792234066 -0.02883204455069245109 0.72322921447619037405 0.68990010047114624925
175.75147834699998839 416.59784811808088989 111.03498274212108754 32.240317912926421684 0.010806759810288649529 -0.025780209863184942037 0.73211625813517466899 0.68060589131740789615
176.00147835100000293 416.45922418910583929 112.74494581453691922 32.337481817767908865 0.013185030339596781612 -0.024940312270407518497 0.73761888915759887819 0.67462768261961225669
176.40147835700000201 416.25066639961727333 115.01274561953887599 32.446546797322191935 0.013385306020721524783 -0.024120514666477819998 0.74536851709863494175 0.66608168273353529631
176.80147836300000108 415.96048169483549373 117.25824559220824028 32.605193889370937654 0.013610772349165269762 -0.03116777061309877056 0.75444428797567442135 0.65548236688102157199
177.15147836799999936 415.66392070420266691 119.21503225543787607 32.739179652145061539 0.017000248541282760723 -0.031129907050478002051 0.76219229736234661576 0.64637823468776534064
177.45147837199999685 415.4383511856033806 120.60621931780585214 32.815835320278139875 0.017896146831565078877 -0.030408279636731618684 0.76578840410534354533 0.64212396357394141422
177.80147837800001298 415.05712548995137468 122.52443847008319722 32.947099165572140578 0.016716463515337284113 -0.031458125818292013987 0.77513240321936804911 0.63079370926389866092
178.10147838200001047 414.65169687869763493 124.45580484466348992 33.063317768067278735 0.021738271451213170976 -0.027118832292028022257 0.78144346489905280873 0.62300732552353921267
178.50147838800000955 414.20586631206714401 126.36541896276460761 33.187694920186785907 0.023867169393341224753 -0.026410035746817352859 0.786036953596916943 0.61715376999341042819
178.85147839300000783 413.71914176714545874 128.26750799270431003 33.324859127302858042 0.022603375330396670295 -0.029358029139850631839 0.79269216738914094478 0.60849512841813557795
179.10147839699999395 413.28144645413976832 129.87677861727041773 33.423502275372392489 0.025893253756424768064 -0.025342079015626073346 0.79613884702697845785 0.60402835587050407451
179.45147840199999223 412.82311090260236597 131.49471886336590387 33.54753990301389166 0.026852762318669020497 -0.026345217519008739399 0.79972611622215317162 0.59918527827539647124
179.75147840700000756 412.33806502124565441 133.08830377987464999 33.658566427972630208 0.026726281481947861129 -0.027472833484745752541 0.80410353725819028181 0.59325243418576290022
180.10147841200000585 411.76466893599388186 134.94941774099589793 33.774793106710461643 0.027534688775879216649 -0.02430046283822949113 0.80812881826476823388 0.58785979749414152273
180.45147841700000413 411.0517245996390443 137.06264578081737682 33.925755460858177059 0.02802725957771505863 -0.024330660642627181117 0.81409289293671405208 0.57954745564378851164
180.75147842100000162 410.50843845867609616 138.63253750264507858 34.017474764526149045 0.026831893332738360192 -0.023924471875680853455 0.81644441383213572916 0.57630390270060660729
181.15147842700000069 409.85360914224480666 140.45210289676916204 34.115970164938680398 0.028297168246211156645 -0.020950338272600066425 0.8206424558533028657 0.57035630376683743581
181.45147843199998761 409.12735731629459224 142.2701723398337208 34.25895856875528267 0.029573430861714988804 -0.018580978576551349796 0.82750384790521802625 0.56037268056558842133
181.80147843699998589 408.50691012950483127 143.80204898116568302 34.330115286430611832 0.025362433184323556618 -0.020213166539721130061 0.83108315869856008717 0.55520172749103791077
182.10147844200000122 407.72367418311125675 145.62402688980350263 34.498596067922875363 0.026792081368417975523 -0.02324081409097491363 0.83546720101725202579 0.54839457050625073364
182.45147844699999951 406.91517261774066583 147.39281035453251434 34.619223563270672628 0.025061303535262400427 -0.023279560585904877923 0.84243285886317320621 0.53771448876858585209
182.80147845199999779 406.20123227077237971 148.91013307195945004 34.720305645125954186 0.02620643280733487776 -0.024532901908283437364 0.84566195273487476669 0.53251030159059986602
183.10147845599999528 405.32121817786213569 150.66310374972707109 34.852205027633921475 0.022733797445923145664 -0.026202220368530926287 0.8515201125597470222 0.52317312240565494452
183.55147846299999514 404.29609102080087268 152.65970445094009733 34.991146828287064352 0.021162584730506337621 -0.031240518118045051271 0.85793409631259709425 0.51237219032606329261
183.90147846799999343 403.25389735563101112 154.64252203036596711 35.089255848342581601 0.021728312014448327577 -0.025558735609343512241 0.86107116186266741131 0.50737667043285650248
184.25147847400000956 402.42174878186750675 156.11897047848958664 35.200078299892133771 0.02264430775807012991 -0.024078563421849514398 0.86574333200499897778 0.49939557587005078965
184.55147847800000704 401.41468293278217061 157.8184809812916285 35.334334705416594602 0.022500150973657626757 -0.02391565529842161128 0.87128145777442445041 0.48968398582788419393
184.90147848300000533 400.36920857458750334 159.4911100169642566 35.456841651350906375 0.024069726712843072386 -0.021990599223017822522 0.87692252913827184457 0.47952470185749385134
185.20147848799999224 399.44747641383224845 160.90132617860152209 35.559068643908396723 0.021236358972580419296 -0.023171846712398372348 0.88106680045709229177 0.47194636952711815914
185.50147849199998973 398.49237004224505654 162.31500061618024233 35.688946097801029111 0.023850921669069116704 -0.025838264906531568238 0.8845002886650075169 0.46521259328792269327
185.80147849700000506 397.53087208889758131 163.68513947303051737 35.767598246399224138 0.020460689276456216212 -0.02437053188689704622 0.88989099073091004755 0.45506204190839905088
186.15147850200000335 396.35756182361495803 165.28791493353082842 35.889485139178468387 0.02099906269381370677 -0.02338021675617288353 0.89439034817130569355 0.44618192469936102107
186.55147850800000242 394.95915424404637406 167.08273328622144049 36.048094743986823119 0.020047505415180397192 -0.027944315517330300946 0.90197943075742303964 0.43040715520006350703
186.9514785140000015 393.53415425360122981 168.82898731201581199 36.177642528412256695 0.022541994834588404556 -0.024112046729612535145 0.90676568645105903865 0.42034088255405982482
187.45147852100001273 391.68051533683302523 170.95454483826395631 36.37271807265189949 0.025746428664783112261 -0.022195274179282693805 0.9134567686837286038 0.40551352993580469519
187.9014785280000126 390.17277622866384945 172.60888340763580118 36.482841753128589346 0.025506098960036544671 -0.018693637619001536587 0.91656361077692671824 0.39863659419071484358
188.20147853200001009 388.82485040927372211 174.0530043253920951 36.60401233234289009 0.027271380204872307934 -0.013581151530035780531 0.91873283973218600185 0.39370267124122076963
188.501478536999997 387.84659751025452579 175.03495409057543952 36.674386945175918129 0.023924787011950606613 -0.013851666677283313092 0.92270388806611025601 0.38451693180453994092
188.85147854199999529 386.6434963204596329 176.23172106005600313 36.773719958507186334 0.021157811949876450391 -0.014171086078089195973 0.92540792953694617218 0.37811597594257168042
189.15147854700001062 385.2089705664159851 177.60622963497439741 36.904627704803026234 0.022044945278805606892 -0.016323561543755246012 0.92966484484559197554 0.36738377479742218013
189.5014785520000089 383.73477440743516809 178.94433248615320053 37.05605310254841811 0.024594041173779966625 -0.015366775722383966066 0.93439641363503578297 0.35505258417398333215
189.80147855600000639 382.25068864420813952 180.24926204655852757 37.162709385957732877 0.023891699752478075258 -0.014127060199760507059 0.93741190702448573546 0.34711457679239926533
190.10147856099999331 380.94219425432930848 181.32002948259707864 37.286492555292433337 0.022890911567983875108 -0.019997782874027463657 0.94128595093043243569 0.33623928002049591202
190.40147856499999079 379.62636245723473394 182.39770185658380797 37.393334243308096632 0.026647174026681121756 -0.017573163388496390591 0.94391321079745271749 0.32864717027072748445
190.70147857000000613 378.30025562564634356 183.44314920148906367 37.500457844917917782 0.027819477568228188902 -0.01957644437009504329 0.94579275692710818024 0.32298436562452298437
191.10147857600000521 376.52077721126767074 184.82464871176281918 37.640882030097941424 0.030037054857502486216 -0.017984176507869983203 0.94767838880018751002 0.31730114423352090425
191.40147858000000269 375.16950874535729099 185.82164845081805993 37.747944621767409501 0.029788955467878273226 -0.015298694713973126982 0.94998727664069559928 0.31048791005927350861
191.75147858500000098 373.56175188617163485 186.97333607267890443 37.896124970134309251 0.032181216951861234266 -0.010539452143141368051 0.9533770599997376527 0.29987575875731636854
192.05147858999998789 372.17597373459636856 187.91749684671444243 38.009860953125887306 0.030846930965150162751 -0.01328898332875062642 0.95572368650799954803 0.29234244443747547937
192.45147859599998696 370.5344772965604534 188.99876744909661852 38.139541656958279248 0.03021321733709100843 -0.013457528086430111183 0.95836712706976712184 0.28361682987436703796
192.75147860000001288 368.88306176987765639 190.04899113586310477 38.258982662436061162 0.03082324256571905563 -0.010568261524014618824 0.96099894575666355845 0.27462568310461443755
193.15147860600001195 366.95624042698835865 191.19157391708256455 38.427598537912018628 0.028407371458555940452 -0.013677286148643833658 0.96440227886535678792 0.262553228145705142
193.55147861200001103 364.99501310404230026 192.30483414859813251 38.56997848091855019 0.026097854617861241527 -0.01540537992053864387 0.96768453058309034098 0.25033622495362750637
193.9514786180000101 362.99794275298171442 193.37363443605244129 38.749831586225248259 0.031168560545159672281 -0.013871044761836327439 0.97124848607850944315 0.23561089372302304601
194.40147862500000997 360.73772110205305808 194.50184707097247383 38.920103651493221264 0.03338702029160434126 -0.011149630854145713144 0.97409962224102653039 0.22336275105252859086
194.80147863100000905 358.96205109914103559 195.31525742951524194 39.080007308327992632 0.034210353831476088271 -0.014554218352420189228 0.97693715750478704596 0.21026558611751564043
195.15147863600000733 356.90501897584886137 196.18314585419832952 39.244946955168586555 0.032399555907661053977 -0.01442183360327532228 0.980264988994822839 0.19448092668301800168
195.45147864099999424 355.34898353439848506 196.80257137271090073 39.358982333959751543 0.034709117679015709379 -0.014703627536939377005 0.98215566513021268502 0.18425343942469207814
195.80147864599999252 353.79598892690955836 197.39674059116305216 39.447353503906882111 0.034660622241123872911 -0.0097886897454208272179 0.98320811846921096766 0.17889834710013374774
196.05147864899998922 352.21853982968320906 197.98344121661506279 39.559276228628299066 0.034451572847765524199 -0.0044693184217842775452 0.98428435636325140035 0.17313988604518509851
196.40147865500000535 350.37733983526874226 198.6116177397560989 39.683681219903370163 0.032466482953194784888 -0.0048148486956558714939 0.98600621833012480622 0.16344565497746976757
196.75147866000000363 348.50858883036704583 199.20362605653170363 39.859737589545801484 0.033035550520853468326 -0.008476911050262781952 0.98805935663911681477 0.15025146301691907902
197.1514786660000027 346.36861730579983032 199.84028312926338344 40.01347203419281584 0.035304351407115651396 -0.0068948793860460298039 0.98933096385816976515 0.14117474052194883827
197.50147867100000099 344.49290410600582391 200.39488454233855919 40.11477777529663058 0.034073637025770230069 -0.0063777893099290165063 0.9896676167962260573 0.13912698993449343354
197.90147867700000006 342.60835790053016581 200.9159983873755948 40.245913910936387481 0.032722243439561538025 -0.0094253954704407207077 0.99083158934828552411 0.13074088210677742294
198.30147868299999914 340.44488356298660392 201.47691068045284624 40.383343237046531726 0.032193547785601336897 -0.0097636622247988212597 0.99194941392482560705 0.122084424047997811
198.65147868799999742 338.80167697919443981 201.87816680000753422 40.493055061052764643 0.031379786941141366019 -0.0076961189814403327056 0.99277848906319510203 0.11552900232215086718
198.90147869200001196 337.14760849552681066 202.25248960942002441 40.639214807386920825 0.03575053082987829367 -0.0086317849495235240281 0.99373738830305591296 0.10551490379367629846
199.15147869599999808 335.50033333617636799 202.58643328472760459 40.775284377415260906 0.038400485719481923519 -0.0079679498857361183428 0.99450604020432964436 0.097054883793812524173
199.45147869999999557 333.85581450197156528 202.89763594693300774 40.873913832038034855 0.037249779581637297576 -0.010172632395857439738 0.99519319830232133572 0.089997052863163617964
199.80147870499999385 331.93556905031095994 203.2290466525996635 40.957732402973711316 0.032852222029444648477 -0.0097913285471496296075 0.99591123976779416527 0.083580284141567359746
200.10147871000000919 330.27419737621107743 203.49343170378872969 41.054267810179410958 0.031285978495918347064 -0.0095432523031149397302 0.99658526891711030071 0.075815009479936024128
200.45147871500000747 328.60277479831779601 203.7387964945245642 41.16495605986376205 0.033093368830662529823 -0.0075516122344700944632 0.99710342342027968865 0.068062949507470257848
200.75147871900000496 326.93046753067415011 203.96457742377668865 41.280021627213088209 0.034864219194545353897 -0.005328357736317873572 0.99741476578166743394 0.062608943646179027187
201.05147872399999187 325.26548231593937999 204.15525944690836013 41.384955707558312099 0.033971023731268167045 -0.0040910585348328939656 0.99788951848882978535 0.055188238573497708228
201.40147872899999015 323.60143039121521724 204.31357725151005411 41.486552896656192502 0.031695789929872951463 -0.0040217807015611650376 0.99844337823938689169 0.045716765312417514955
201.65147873300000469 321.63019294490817401 204.45223312942454186 41.646822085220307486 0.030151887855817925688 -0.00017315887181055365112 0.99900022787564857207 0.033005732519325869934
202.05147873900000377 319.66470442192439805 204.54569239855450746 41.789089961505041515 0.028187839213101712615 -0.0053546899047254058537 0.99933465278078781324 0.022517210484933145032
202.50147874600000364 316.85390927168856479 204.65441715625891561 41.927205352746874212 0.026464931001837787433 -0.0071916912512817298547 0.99953632437875616912 0.013229635347208860627
202.85147875100000192 314.85744783884780418 204.70214812205358612 42.072574486172264585 0.029578757296436105489 -0.0068356847612393760796 0.99952270606060866776 0.0057210663273449431643
203.2014787560000002 312.89829346101640795 204.70017220322088747 42.177400834069700863 0.028066043009441699746 -0.0052736201963673257423 0.99958159425277304244 -0.0045959319948620245069
203.60147876199999928 310.63734204008807183 204.66117761652850504 42.304683246321751255 0.024456859391010481869 -0.0035772768747403026549 0.99961049835017246057 -0.012958267901599261271
203.95147876699999756 308.92637322073227324 204.61275630817516458 42.426715971178708742 0.025568872394992881586 -0.0051729936250094615824 0.99947834857519823881 -0.019039528113870936993
204.2514787720000129 306.94022051063723211 204.52161464071946284 42.5568704245204259 0.026361229388790211742 -0.0022271197297025957171 0.99930093011197740349 -0.026415461384543516277
204.65147877800001197 304.94857062607394482 204.41345417640636128 42.695030895695239792 0.029337225993694426851 0.00073291898028487556353 0.99905185963467779686 -0.032158541031201401394
205.05147878400001105 302.40961970387758129 204.24492521994429239 42.858422895354308935 0.029763815046765340622 0.00033132747370564184525 0.99882998754083629489 -0.038113797044376333811
205.45147879000001012 300.16426797887129396 204.05781125091101558 43.010655096303473499 0.033150010049168059101 0.0031677696210310481682 0.9983904222015573815 -0.045908680285582967318
205.90147879599999214 297.94444905274241364 203.81775444272290088 43.150175645046417117 0.033124440521130733839 0.0049322509532660459633 0.9979001475661007925 -0.055441318781667491
206.30147880199999122 295.7305632587373907 203.53300754740865841 43.29617930160202377 0.031642416929025238281 0.00081588307641084487683 0.99726050914563346694 -0.066854832916454803859
206.70147880799999029 293.50840591112188349 203.21146304225374024 43.456761335957139636 0.032852475683855880684 -0.00088572402566791381788 0.99652974783963987893 -0.076474780189653743245
207.05147881299998858 291.56277503219808978 202.90489257199487838 43.58513804401060554 0.032776063191206593339 0.0022172083452666915653 0.99611468898526611682 -0.081708873793649092199
207.40147881900000471 289.36136807891955414 202.52177990238618577 43.711958584730560062 0.032141407456476055182 -0.00041512538646529159288 0.99543175333410804928 -0.08990206922987800664
207.80147882500000378 287.42516040070404415 202.15954800914050793 43.856955881723912682 0.034580142201685488967 0.0010627124478158156244 0.99472415205418962536 -0.096576113649482778212
208.05147882800000048 285.78794397000785921 201.82335976731954474 43.971839120704224513 0.036449556079010549114 0.0002677876322581440767 0.99384073757805257987 -0.1046515479185071984
208.45147883399999955 283.88493690733162111 201.39385922442318133 44.092973365663283403 0.033599408907542933911 -0.00035278047744515819099 0.99292322812360911399 -0.11390530417671425323
208.80147883899999783 281.98875785026973517 200.92497583853344167 44.213924772608187652 0.033409425297031003499 -0.0017880560284313127498 0.99175022420774394671 -0.12374209445799239093
209.10147884400001317 280.36029920085945832 200.50080600639176964 44.309049108661476168 0.032519791563251562727 -0.0023207007648118277779 0.99093572910833782608 -0.13032059806941495572
209.40147884800001066 278.46571832905840438 199.96684838533218453 44.430227709985821605 0.033502404566177042267 -0.0086678738086965485127 0.98931998114211239237 -0.14159248484609254781
209.85147885500001053 276.03289401856068253 199.25254237766935717 44.576094547519048206 0.033117147425100322555 -0.0066169496927347337331 0.98817663536387023715 -0.14955402984917684495
210.30147886200001039 273.86909828801503863 198.58635466378362366 44.711720604812072111 0.033980148414384833688 -0.0018091852204856124532 0.98721148637284206195 -0.15574195817472683001
210.65147886700000868 271.7350311214845533 197.86853878538582308 44.87809687848336182 0.036767532019347730354 -0.0027984488954440724442 0.9851060030825330438 -0.16794784894050285295
211.05147887300000775 269.87913205137408568 197.19301890927275167 45.039656058999085531 0.038998385680684109766 0.0012087654752655269032 0.98323849042558808531 -0.17810035302024843085
211.35147887700000524 267.62064056362095243 196.49195939239950803 46.980939594996137032 0.15284520446959504181 0.02212386462408466245 0.97021462128935520575 -0.18663458072151498102
211.65147888199999215 268.60875084894445308 196.69029429693310362 45.063987523855459472 0.011570769025161856819 -0.0062689080857939952912 0.98108536285217073925 -0.193127752777281253
212.05147888799999123 268.52269695288094908 196.66301102621787322 45.102551435166162719 0.016187724409676983867 0.0014226369348356742751 0.97916178673136333721 -0.20243055374036841854
212.45147889399999031 268.45975273971583874 196.63530152808939988 45.125747340950724151 0.018904077867410998964 0.0080387577145300103537 0.97739358440271972839 -0.21042764880783487724
212.85147889999998938 268.42695441458857886 196.61716513025947961 45.125308085360508414 0.021248941894573901423 0.0065074807588297962566 0.97492344006358677699 -0.22142813998477328674
213.15147890399998687 268.40255501502713287 196.60101724674066759 45.121753964006124704 0.025855940295888155123 0.011952275659052715232 0.97303104782078198021 -0.22890870109014374578
213.4514789090000022 268.39238914898345456 196.59281213755036788 45.118039217689599241 0.029668338839317347222 0.012992259419678374444 0.97034980696659844934 -0.23952503623958004697
213.80147891400000049 268.38526730271695442 196.58507432955755689 45.110912970857043547 0.027557919724507117659 0.014053652782116780873 0.96839237385538057268 -0.24750609318293204097
214.15147891899999877 268.37486397010047767 196.5782528323829581 45.108897382667265674 0.026236276545073374672 0.016573665577501013602 0.96585503582459009131 -0.25721784769851269159
214.4514789240000141 268.38302680468513017 196.5837750107845352 45.109740292876885803 0.02882245000391140885 0.021195614372135570397 0.96250390357786941298 -0.26889821104745781355
214.80147892900001239 268.38839435103898268 196.588341433961034 45.111206729306893237 0.026153233141876518902 0.024465987633575637938 0.95977599358036291832 -0.27847345653072108629
215.15147893400001067 268.38803901202368252 196.59783609612188116 45.127799818332348991 0.024431189975947006227 0.023073399295713947765 0.95766156520201251023 -0.28592842065127305196
215.55147894000000974 268.38534420316398155 196.60105196411640804 45.134327809556545219 0.022910186892339336889 0.019076793793872715704 0.95479943311406134665 -0.29575199373828575666
215.90147894500000803 268.38432569598398914 196.60338624449434519 45.138397035779739497 0.021602560626720751502 0.023122703175135435327 0.95144685111785276543 -0.30618223245343006989
216.20147894999999494 268.38166013492696038 196.60670124260016678 45.144943159602092919 0.023331491491830492341 0.023029052966974862537 0.95036541755589498681 -0.30940406806960418784
216.50147895399999243 268.38377575641231942 196.61172278320421469 45.148144959730160508 0.02480784821737075721 0.018875682215449243045 0.94799956093366255505 -0.31674139571156251227
216.80147895900000776 268.37673527989505828 196.61243281264160032 45.153165238255638769 0.022633552774762956405 0.019231176259077234492 0.945595364025931584 -0.32398656095762728979
217.10147896300000525 268.36516067902135774 196.61100481056098488 45.15780466686423722 0.024465511524909926838 0.022160810745994252019 0.94189051349158869897 -0.33429417854257681419
217.45147896800000353 268.36433066646543466 196.61735626259175547 45.167664638837784707 0.02333373235124107728 0.019623662768833229769 0.93949084970948493201 -0.34121458366582979593
217.80147897399999124 268.35474198574365801 196.61337673115403391 45.168436924621950368 0.023164946002862528418 0.019271956558961560874 0.9355318710699066509 -0.35195467773495159314
218.15147897899998952 268.35390254849409075 196.61471727343757721 45.171318507044738055 0.025840535106895719253 0.018618096416127841164 0.93166158729078674128 -0.36192861174275919867
218.5514789849999886 268.35404182873173795 196.61541403958020169 45.173194599673543337 0.027052432183276908795 0.019303577051337603154 0.92696264397617333941 -0.37367873166490794823
219.00147899099999904 268.34990235427363814 196.61371015201862633 45.173856611530460725 0.022314945862021321604 0.020892243039143693073 0.9234178556550223238 -0.38257681742291826943
219.30147899599998595 268.35169642754198094 196.6148684884882698 45.172888001280348647 0.025004459896599631058 0.02194460538471740968 0.9195444441548582537 -0.39157531396108380406
219.65147900100001266 268.35100678580067779 196.61447854077712805 45.170350795651380338 0.021653113124871642414 0.024698658258638615803 0.91706206538832413244 -0.39738933956250754864
220.00147900600001094 268.34457290843715782 196.6137733196761701 45.173734915411344559 0.021662461516964701125 0.022164628088952656459 0.91311019231283319098 -0.40653320124821934467
220.40147901200001002 268.34504849251766245 196.61638645002361159 45.175597363108138893 0.020817171506676186016 0.02493029324531654406 0.90833073753316162513 -0.41698968464654689869
220.65147901599999614 268.3465716406460615 196.62454594469426183 45.186854080351913865 0.020768884938358895403 0.024059943722527312587 0.90595757858740477708 -0.4221737063419894187
220.95147901999999362 268.34992314644756561 196.62865091668624018 45.190247886411164302 0.018440390324618086831 0.020568332182116726148 0.9033427904405775255 -0.42802885261971856945
221.25147902500000896 268.33974989409284717 196.6249175191201175 45.190578396410003847 0.021862876213465096131 0.024375050505803779605 0.90178532190470084284 -0.43094211299633844447
221.65147903100000804 268.34244516287634497 196.62428854760361219 45.186885272159194926 0.019415467482844821906 0.025205227116964632611 0.89769188069913219419 -0.43947357540045545177
222.05147903700000711 268.33161144742894066 196.62288329207183324 45.190589166481132111 0.020918769153596191573 0.021189774664493593592 0.89276549446074582317 -0.44953661747073092592
222.3514790410000046 268.32752032694111222 196.62267963662148418 45.192258654531897832 0.018180045122081954501 0.023659192281578214634 0.88786378049895953168 -0.45913792683466853051
222.70147904699999231 268.31561396424012855 196.62585742629821084 45.202867161347121794 0.018018686630126318216 0.022958126789446621496 0.88438419542977464438 -0.46584637620193530827
223.05147905199999059 268.30831107378082834 196.62137443691375438 45.201599115231239523 0.020479513096422593404 0.02552650977106245278 0.87873291053037549947 -0.47619056982793794841
223.35147905599998808 268.30614164309594116 196.62151655451208399 45.203062291408905082 0.021245104523463068796 0.025468223203631474433 0.87550824931144100027 -0.48206360630963701608
223.65147906100000341 268.30875563146145169 196.62558945999992943 45.206057600885834802 0.021162656570111678528 0.026242953459189886922 0.87117412995414100774 -0.48981535772092721359
224.00147906600000169 268.31088653485795703 196.62910718841544622 45.206888679140689646 0.020636377859375054644 0.025464774385247631455 0.8707564523573612103 -0.49062091868608315171
224.40147907200000077 268.31581462008051631 196.63272136029985404 45.206519307090736959 0.021681516589798704303 0.030486018568963258596 0.86580310725789311199 -0.49898446265666063226
224.65147907599998689 268.32566274908629111 196.64452199276340139 45.213974202572671857 -0.020510470743706349372 -0.026093566658462102881 -0.85944849827728397873 0.51014382793270585115
224.9514790800000128 268.32307025081718166 196.64833333512603986 45.219670764810231844 -0.019814875136951914242 -0.025914184528768015314 -0.85432506497585480876 0.51871428466692293124
225.25147908499999971 268.32594834049831434 196.65290030856070302 45.222836165921378893 -0.018291438289721427546 -0.02421182820358369972 -0.84982479076886896507 0.52619106383041291952
225.5514790889999972 268.32187492781503124 196.65328156558604178 45.22583001647805645 -0.020162900528692562913 -0.022118802411304431393 -0.84641580451324704981 0.53168082708741071229
225.85147909400001254 268.31833710096873347 196.65016761140296353 45.222904947344261473 -0.019216376934523812792 -0.023154095384581470374 -0.84104378841712623682 0.54012958138709665779
226.20147909900001082 268.3128761976135479 196.64669196783663097 45.222086344085802523 -0.019516458801912411891 -0.023686897497194860096 -0.83764919329487752542 0.5453456405759854464
226.50147910300000831 268.3048868271477545 196.64412902866740751 45.222394264165359345 -0.017950153196759674468 -0.02489862164573793113 -0.83237121146871939636 0.55336788573104866984
226.80147910799999522 268.29891129722733467 196.64019048367933351 45.221048531757361388 -0.022040824602335994109 -0.024741398783915145854 -0.82740431308749295969 0.56062836881599054095
227.10147911199999271 268.29537563448604942 196.63510151608463161 45.217659270007281691 -0.020376351938313479878 -0.024962982759513179659 -0.82364778840361596579 0.56618545939582942683
227.45147911699999099 268.29876715077409699 196.63549932090222683 45.213961505664912011 -0.019847634311202670687 -0.022624175840865921872 -0.81945919304546743778 0.57234679086463136066
227.85147912299999007 268.30111549210596422 196.63451169351750991 45.212384368278463853 -0.023409797007654799955 -0.024855558605161327118 -0.81244668479797410576 0.58203485030646318066
228.25147912899998914 268.30511447093704192 196.63325211361933498 45.210477486906938793 -0.024437199980373611879 -0.027669402563072903467 -0.80636944709384883456 0.59025887728392767428
228.60147913399998743 268.30632119484619125 196.62959838590703043 45.206625673583410219 -0.024443114053831496713 -0.025296193199158670262 -0.80157636611204274857 0.59685673831799401778
228.90147913900000276 268.31039825401751386 196.62694557847379428 45.20133139469989203 -0.02141638050781541 -0.028397780161954919165 -0.79448390197596907569 0.60624271890791114892
229.25147914400000104 268.30905134538272705 196.62453393864547024 45.199435746586388518 -0.022152898900954627603 -0.027225953757506117514 -0.78991049657115564031 0.61221679486844249318
229.70147915100000091 268.30494316615863681 196.62024086989157468 45.197172849869559741 -0.019029755904811131162 -0.024735108710076853661 -0.78113789273043254813 0.62357809080175607974
230.0014791549999984 268.29469028467195812 196.61288817700861387 45.19424971292866644 -0.01620127549157028557 -0.027250643695747655409 -0.77687076558272649685 0.62886145904604640045
230.40147916099999748 268.29441474449043881 196.61783883756521618 45.200682586803459628 -0.016640690542024348664 -0.030140947783820249556 -0.77089753215136491704 0.6360279912141545422
230.70147916600001281 268.29947836035000819 196.62509955382196836 45.206342387583241305 -0.015879196429960835968 -0.028392065161279036317 -0.76527175515967393871 0.64288481278643416772
231.10147917200001189 268.30274184695127815 196.62938220221428764 45.208993816486177764 -0.015739528800244356049 -0.029313310806497773486 -0.75816964447859835907 0.65120794469501341872
231.45147917700001017 268.29981716897907518 196.63238421497800346 45.214234760877410224 -0.016142674165432729233 -0.026603406973895796922 -0.75561150796308984567 0.65428046114943372302
231.75147918100000766 268.29817069908273197 196.63610328435461838 45.219367063445645272 -0.012772099781530847282 -0.027760847647950219474 -0.74988132531794793323 0.660866254808365583
232.10147918699999536 268.28719239759345783 196.63270763258222473 45.220848990918995014 -0.011118118760975789078 -0.026245235986546513324 -0.74420124588018765621 0.66734704663585941997
232.40147919099999285 268.28793659066576538 196.63653308722473412 45.222631792153599406 -0.013802721673911888534 -0.02840930848217937052 -0.74060360655467605273 0.67119944429667366403
232.80147919699999193 268.28788469620695878 196.63973562789132643 45.224396616184947106 -0.017392832604203788127 -0.024989350805298727459 -0.73324328931031934609 0.67928440317860616648
233.201479202999991 268.28571063916143657 196.6295317543521719 45.214457258723143696 -0.019129204728052826706 -0.027606989995777889146 -0.7273656898222755629 0.68542766277646705042
233.55147920799998928 268.28963443037730485 196.62651509334543221 45.20394536808438346 -0.019380570719140195052 -0.029097636367187297568 -0.72127685386978401816 0.691763992347208867
233.90147921299998757 268.29954850823963852 196.62470571754980142 45.191259514976081846 -0.017687321284782283465 -0.029952117649614196093 -0.71139261210575222005 0.70193345892287206667
234.30147921899998664 268.30884342676330334 196.6250951225207757 45.184833627172302783 -0.024015843479267679622 -0.029217457803549402862 -0.70172357782321670427 0.71144472712113127066
234.65147922500000277 268.31742360216071575 196.61785339948843898 45.163968221005603709 -0.026348960760945117077 -0.032428907189607621142 -0.69571933796940366168 0.7170974138990606761
235.10147923100001321 268.33325104917867066 196.61504002790252343 45.152271253388335026 -0.024895398180950895767 -0.027013326483281370483 -0.68851199032712950832 0.72429395863661227839
